digraph Tree {
node [shape=box, fontname="helvetica"] ;
edge [fontname="helvetica"] ;
0 [label="X[20] <= 16.795\ngini = 0.468\nsamples = 569\nvalue = [212, 357]"] ;
1 [label="X[27] <= 0.136\ngini = 0.159\nsamples = 379\nvalue = [33, 346]"] ;
0 -> 1 [labeldistance=2.5, labelangle=45, headlabel="True"] ;
2 [label="X[13] <= 91.555\ngini = 0.03\nsamples = 333\nvalue = [5, 328]"] ;
1 -> 2 ;
3 [label="X[13] <= 38.605\ngini = 0.024\nsamples = 332\nvalue = [4, 328]"] ;
2 -> 3 ;
4 [label="X[14] <= 0.003\ngini = 0.012\nsamples = 319\nvalue = [2, 317]"] ;
3 -> 4 ;
5 [label="X[27] <= 0.101\ngini = 0.245\nsamples = 7\nvalue = [1, 6]"] ;
4 -> 5 ;
6 [label="gini = 0.0\nsamples = 6\nvalue = [0, 6]"] ;
5 -> 6 ;
7 [label="gini = 0.0\nsamples = 1\nvalue = [1, 0]"] ;
5 -> 7 ;
8 [label="X[21] <= 33.27\ngini = 0.006\nsamples = 312\nvalue = [1, 311]"] ;
4 -> 8 ;
9 [label="gini = 0.0\nsamples = 292\nvalue = [0, 292]"] ;
8 -> 9 ;
10 [label="X[21] <= 33.56\ngini = 0.095\nsamples = 20\nvalue = [1, 19]"] ;
8 -> 10 ;
11 [label="gini = 0.0\nsamples = 1\nvalue = [1, 0]"] ;
10 -> 11 ;
12 [label="gini = 0.0\nsamples = 19\nvalue = [0, 19]"] ;
10 -> 12 ;
13 [label="X[25] <= 0.082\ngini = 0.26\nsamples = 13\nvalue = [2, 11]"] ;
3 -> 13 ;
14 [label="gini = 0.0\nsamples = 1\nvalue = [1, 0]"] ;
13 -> 14 ;
15 [label="X[26] <= 0.328\ngini = 0.153\nsamples = 12\nvalue = [1, 11]"] ;
13 -> 15 ;
16 [label="gini = 0.0\nsamples = 11\nvalue = [0, 11]"] ;
15 -> 16 ;
17 [label="gini = 0.0\nsamples = 1\nvalue = [1, 0]"] ;
15 -> 17 ;
18 [label="gini = 0.0\nsamples = 1\nvalue = [1, 0]"] ;
2 -> 18 ;
19 [label="X[21] <= 25.67\ngini = 0.476\nsamples = 46\nvalue = [28, 18]"] ;
1 -> 19 ;
20 [label="X[23] <= 810.3\ngini = 0.332\nsamples = 19\nvalue = [4, 15]"] ;
19 -> 20 ;
21 [label="X[4] <= 0.123\ngini = 0.124\nsamples = 15\nvalue = [1, 14]"] ;
20 -> 21 ;
22 [label="gini = 0.0\nsamples = 14\nvalue = [0, 14]"] ;
21 -> 22 ;
23 [label="gini = 0.0\nsamples = 1\nvalue = [1, 0]"] ;
21 -> 23 ;
24 [label="X[3] <= 621.8\ngini = 0.375\nsamples = 4\nvalue = [3, 1]"] ;
20 -> 24 ;
25 [label="gini = 0.0\nsamples = 3\nvalue = [3, 0]"] ;
24 -> 25 ;
26 [label="gini = 0.0\nsamples = 1\nvalue = [0, 1]"] ;
24 -> 26 ;
27 [label="X[6] <= 0.097\ngini = 0.198\nsamples = 27\nvalue = [24, 3]"] ;
19 -> 27 ;
28 [label="X[21] <= 28.545\ngini = 0.5\nsamples = 6\nvalue = [3, 3]"] ;
27 -> 28 ;
29 [label="gini = 0.0\nsamples = 3\nvalue = [0, 3]"] ;
28 -> 29 ;
30 [label="gini = 0.0\nsamples = 3\nvalue = [3, 0]"] ;
28 -> 30 ;
31 [label="gini = 0.0\nsamples = 21\nvalue = [21, 0]"] ;
27 -> 31 ;
32 [label="X[1] <= 16.11\ngini = 0.109\nsamples = 190\nvalue = [179, 11]"] ;
0 -> 32 [labeldistance=2.5, labelangle=-45, headlabel="False"] ;
33 [label="X[7] <= 0.066\ngini = 0.498\nsamples = 17\nvalue = [8, 9]"] ;
32 -> 33 ;
34 [label="gini = 0.0\nsamples = 9\nvalue = [0, 9]"] ;
33 -> 34 ;
35 [label="gini = 0.0\nsamples = 8\nvalue = [8, 0]"] ;
33 -> 35 ;
36 [label="X[24] <= 0.088\ngini = 0.023\nsamples = 173\nvalue = [171, 2]"] ;
32 -> 36 ;
37 [label="gini = 0.0\nsamples = 1\nvalue = [0, 1]"] ;
36 -> 37 ;
38 [label="X[26] <= 0.18\ngini = 0.012\nsamples = 172\nvalue = [171, 1]"] ;
36 -> 38 ;
39 [label="X[14] <= 0.007\ngini = 0.375\nsamples = 4\nvalue = [3, 1]"] ;
38 -> 39 ;
40 [label="gini = 0.0\nsamples = 3\nvalue = [3, 0]"] ;
39 -> 40 ;
41 [label="gini = 0.0\nsamples = 1\nvalue = [0, 1]"] ;
39 -> 41 ;
42 [label="gini = 0.0\nsamples = 168\nvalue = [168, 0]"] ;
38 -> 42 ;
}
